digraph Tree {
node [shape=box] ;
0 [label="Sex <= 0.5\ngini = 0.473\nsamples = 891\nvalue = [549, 342]"] ;
1 [label="Age <= 6.5\ngini = 0.306\nsamples = 577\nvalue = [468, 109]"] ;
0 -> 1 [labeldistance=2.5, labelangle=45, headlabel="True"] ;
2 [label="SibSp <= 2.5\ngini = 0.444\nsamples = 24\nvalue = [8, 16]"] ;
1 -> 2 ;
3 [label="gini = 0.0\nsamples = 15\nvalue = [0, 15]"] ;
2 -> 3 ;
4 [label="gini = 0.198\nsamples = 9\nvalue = [8, 1]"] ;
2 -> 4 ;
5 [label="Pclass <= 1.5\ngini = 0.28\nsamples = 553\nvalue = [460, 93]"] ;
1 -> 5 ;
6 [label="PassengerId <= 565.5\ngini = 0.46\nsamples = 120\nvalue = [77, 43]"] ;
5 -> 6 ;
7 [label="Age <= 53.0\ngini = 0.382\nsamples = 74\nvalue = [55, 19]"] ;
6 -> 7 ;
8 [label="PassengerId <= 384.5\ngini = 0.437\nsamples = 59\nvalue = [40, 19]"] ;
7 -> 8 ;
9 [label="PassengerId <= 26.0\ngini = 0.355\nsamples = 39\nvalue = [30, 9]"] ;
8 -> 9 ;
10 [label="gini = 0.0\nsamples = 1\nvalue = [0, 1]"] ;
9 -> 10 ;
11 [label="Fare <= 64.979\ngini = 0.332\nsamples = 38\nvalue = [30, 8]"] ;
9 -> 11 ;
12 [label="gini = 0.403\nsamples = 25\nvalue = [18, 7]"] ;
11 -> 12 ;
13 [label="gini = 0.142\nsamples = 13\nvalue = [12, 1]"] ;
11 -> 13 ;
14 [label="PassengerId <= 514.5\ngini = 0.5\nsamples = 20\nvalue = [10, 10]"] ;
8 -> 14 ;
15 [label="Fare <= 27.15\ngini = 0.459\nsamples = 14\nvalue = [5, 9]"] ;
14 -> 15 ;
16 [label="gini = 0.0\nsamples = 5\nvalue = [0, 5]"] ;
15 -> 16 ;
17 [label="gini = 0.494\nsamples = 9\nvalue = [5, 4]"] ;
15 -> 17 ;
18 [label="gini = 0.278\nsamples = 6\nvalue = [5, 1]"] ;
14 -> 18 ;
19 [label="gini = 0.0\nsamples = 15\nvalue = [15, 0]"] ;
7 -> 19 ;
20 [label="Fare <= 25.938\ngini = 0.499\nsamples = 46\nvalue = [22, 24]"] ;
6 -> 20 ;
21 [label="gini = 0.0\nsamples = 6\nvalue = [6, 0]"] ;
20 -> 21 ;
22 [label="PassengerId <= 741.5\ngini = 0.48\nsamples = 40\nvalue = [16, 24]"] ;
20 -> 22 ;
23 [label="Age <= 57.0\ngini = 0.408\nsamples = 28\nvalue = [8, 20]"] ;
22 -> 23 ;
24 [label="PassengerId <= 604.0\ngini = 0.34\nsamples = 23\nvalue = [5, 18]"] ;
23 -> 24 ;
25 [label="gini = 0.5\nsamples = 4\nvalue = [2, 2]"] ;
24 -> 25 ;
26 [label="gini = 0.266\nsamples = 19\nvalue = [3, 16]"] ;
24 -> 26 ;
27 [label="gini = 0.48\nsamples = 5\nvalue = [3, 2]"] ;
23 -> 27 ;
28 [label="PassengerId <= 798.5\ngini = 0.444\nsamples = 12\nvalue = [8, 4]"] ;
22 -> 28 ;
29 [label="gini = 0.0\nsamples = 7\nvalue = [7, 0]"] ;
28 -> 29 ;
30 [label="gini = 0.32\nsamples = 5\nvalue = [1, 4]"] ;
28 -> 30 ;
31 [label="Fare <= 51.698\ngini = 0.204\nsamples = 433\nvalue = [383, 50]"] ;
5 -> 31 ;
32 [label="Age <= 13.0\ngini = 0.193\nsamples = 417\nvalue = [372, 45]"] ;
31 -> 32 ;
33 [label="SibSp <= 2.0\ngini = 0.444\nsamples = 12\nvalue = [8, 4]"] ;
32 -> 33 ;
34 [label="gini = 0.32\nsamples = 5\nvalue = [1, 4]"] ;
33 -> 34 ;
35 [label="gini = 0.0\nsamples = 7\nvalue = [7, 0]"] ;
33 -> 35 ;
36 [label="PassengerId <= 581.5\ngini = 0.182\nsamples = 405\nvalue = [364, 41]"] ;
32 -> 36 ;
37 [label="PassengerId <= 569.5\ngini = 0.219\nsamples = 255\nvalue = [223, 32]"] ;
36 -> 37 ;
38 [label="Age <= 45.25\ngini = 0.205\nsamples = 250\nvalue = [221, 29]"] ;
37 -> 38 ;
39 [label="gini = 0.217\nsamples = 234\nvalue = [205, 29]"] ;
38 -> 39 ;
40 [label="gini = 0.0\nsamples = 16\nvalue = [16, 0]"] ;
38 -> 40 ;
41 [label="gini = 0.48\nsamples = 5\nvalue = [2, 3]"] ;
37 -> 41 ;
42 [label="Age <= 31.5\ngini = 0.113\nsamples = 150\nvalue = [141, 9]"] ;
36 -> 42 ;
43 [label="Age <= 30.75\ngini = 0.158\nsamples = 104\nvalue = [95, 9]"] ;
42 -> 43 ;
44 [label="gini = 0.133\nsamples = 98\nvalue = [91, 7]"] ;
43 -> 44 ;
45 [label="gini = 0.444\nsamples = 6\nvalue = [4, 2]"] ;
43 -> 45 ;
46 [label="gini = 0.0\nsamples = 46\nvalue = [46, 0]"] ;
42 -> 46 ;
47 [label="Fare <= 63.023\ngini = 0.43\nsamples = 16\nvalue = [11, 5]"] ;
31 -> 47 ;
48 [label="gini = 0.408\nsamples = 7\nvalue = [2, 5]"] ;
47 -> 48 ;
49 [label="gini = 0.0\nsamples = 9\nvalue = [9, 0]"] ;
47 -> 49 ;
50 [label="Pclass <= 2.5\ngini = 0.383\nsamples = 314\nvalue = [81, 233]"] ;
0 -> 50 [labeldistance=2.5, labelangle=-45, headlabel="False"] ;
51 [label="Age <= 2.5\ngini = 0.1\nsamples = 170\nvalue = [9, 161]"] ;
50 -> 51 ;
52 [label="gini = 0.5\nsamples = 2\nvalue = [1, 1]"] ;
51 -> 52 ;
53 [label="Fare <= 28.856\ngini = 0.091\nsamples = 168\nvalue = [8, 160]"] ;
51 -> 53 ;
54 [label="Fare <= 28.231\ngini = 0.182\nsamples = 69\nvalue = [7, 62]"] ;
53 -> 54 ;
55 [label="Age <= 56.0\ngini = 0.161\nsamples = 68\nvalue = [6, 62]"] ;
54 -> 55 ;
56 [label="PassengerId <= 48.0\ngini = 0.14\nsamples = 66\nvalue = [5, 61]"] ;
55 -> 56 ;
57 [label="gini = 0.5\nsamples = 2\nvalue = [1, 1]"] ;
56 -> 57 ;
58 [label="PassengerId <= 373.0\ngini = 0.117\nsamples = 64\nvalue = [4, 60]"] ;
56 -> 58 ;
59 [label="gini = 0.204\nsamples = 26\nvalue = [3, 23]"] ;
58 -> 59 ;
60 [label="gini = 0.051\nsamples = 38\nvalue = [1, 37]"] ;
58 -> 60 ;
61 [label="gini = 0.5\nsamples = 2\nvalue = [1, 1]"] ;
55 -> 61 ;
62 [label="gini = 0.0\nsamples = 1\nvalue = [1, 0]"] ;
54 -> 62 ;
63 [label="Parch <= 1.5\ngini = 0.02\nsamples = 99\nvalue = [1, 98]"] ;
53 -> 63 ;
64 [label="gini = 0.0\nsamples = 84\nvalue = [0, 84]"] ;
63 -> 64 ;
65 [label="Age <= 24.5\ngini = 0.124\nsamples = 15\nvalue = [1, 14]"] ;
63 -> 65 ;
66 [label="gini = 0.0\nsamples = 10\nvalue = [0, 10]"] ;
65 -> 66 ;
67 [label="gini = 0.32\nsamples = 5\nvalue = [1, 4]"] ;
65 -> 67 ;
68 [label="Fare <= 23.35\ngini = 0.5\nsamples = 144\nvalue = [72, 72]"] ;
50 -> 68 ;
69 [label="Age <= 36.5\ngini = 0.484\nsamples = 117\nvalue = [48, 69]"] ;
68 -> 69 ;
70 [label="PassengerId <= 396.0\ngini = 0.472\nsamples = 110\nvalue = [42, 68]"] ;
69 -> 70 ;
71 [label="Embarked <= 1.5\ngini = 0.416\nsamples = 61\nvalue = [18, 43]"] ;
70 -> 71 ;
72 [label="PassengerId <= 305.0\ngini = 0.482\nsamples = 42\nvalue = [17, 25]"] ;
71 -> 72 ;
73 [label="PassengerId <= 13.0\ngini = 0.498\nsamples = 34\nvalue = [16, 18]"] ;
72 -> 73 ;
74 [label="gini = 0.0\nsamples = 3\nvalue = [0, 3]"] ;
73 -> 74 ;
75 [label="gini = 0.499\nsamples = 31\nvalue = [16, 15]"] ;
73 -> 75 ;
76 [label="gini = 0.219\nsamples = 8\nvalue = [1, 7]"] ;
72 -> 76 ;
77 [label="PassengerId <= 253.5\ngini = 0.1\nsamples = 19\nvalue = [1, 18]"] ;
71 -> 77 ;
78 [label="gini = 0.0\nsamples = 11\nvalue = [0, 11]"] ;
77 -> 78 ;
79 [label="gini = 0.219\nsamples = 8\nvalue = [1, 7]"] ;
77 -> 79 ;
80 [label="Age <= 16.5\ngini = 0.5\nsamples = 49\nvalue = [24, 25]"] ;
70 -> 80 ;
81 [label="PassengerId <= 842.0\ngini = 0.18\nsamples = 10\nvalue = [1, 9]"] ;
80 -> 81 ;
82 [label="gini = 0.0\nsamples = 8\nvalue = [0, 8]"] ;
81 -> 82 ;
83 [label="gini = 0.5\nsamples = 2\nvalue = [1, 1]"] ;
81 -> 83 ;
84 [label="PassengerId <= 518.5\ngini = 0.484\nsamples = 39\nvalue = [23, 16]"] ;
80 -> 84 ;
85 [label="gini = 0.198\nsamples = 9\nvalue = [8, 1]"] ;
84 -> 85 ;
86 [label="Fare <= 7.744\ngini = 0.5\nsamples = 30\nvalue = [15, 15]"] ;
84 -> 86 ;
87 [label="gini = 0.32\nsamples = 5\nvalue = [1, 4]"] ;
86 -> 87 ;
88 [label="gini = 0.493\nsamples = 25\nvalue = [14, 11]"] ;
86 -> 88 ;
89 [label="gini = 0.245\nsamples = 7\nvalue = [6, 1]"] ;
69 -> 89 ;
90 [label="PassengerId <= 115.0\ngini = 0.198\nsamples = 27\nvalue = [24, 3]"] ;
68 -> 90 ;
91 [label="gini = 0.444\nsamples = 3\nvalue = [1, 2]"] ;
90 -> 91 ;
92 [label="Age <= 5.5\ngini = 0.08\nsamples = 24\nvalue = [23, 1]"] ;
90 -> 92 ;
93 [label="gini = 0.444\nsamples = 3\nvalue = [2, 1]"] ;
92 -> 93 ;
94 [label="gini = 0.0\nsamples = 21\nvalue = [21, 0]"] ;
92 -> 94 ;
}